digraph Tree {
node [shape=box] ;
0 [label="Sex <= 0.328\ngini = 0.469\nsamples = 712\nvalue = [444, 268]"] ;
1 [label="Age <= -1.761\ngini = 0.303\nsamples = 467\nvalue = [380, 87]"] ;
0 -> 1 [labeldistance=2.5, labelangle=45, headlabel="True"] ;
2 [label="gini = 0.434\nsamples = 22\nvalue = [7, 15]"] ;
1 -> 2 ;
3 [label="Deck <= -0.057\ngini = 0.271\nsamples = 445\nvalue = [373, 72]"] ;
1 -> 3 ;
4 [label="Ticket <= -0.409\ngini = 0.474\nsamples = 57\nvalue = [35, 22]"] ;
3 -> 4 ;
5 [label="gini = 0.5\nsamples = 32\nvalue = [16, 16]"] ;
4 -> 5 ;
6 [label="gini = 0.365\nsamples = 25\nvalue = [19, 6]"] ;
4 -> 6 ;
7 [label="Fare <= 0.417\ngini = 0.225\nsamples = 388\nvalue = [338, 50]"] ;
3 -> 7 ;
8 [label="Ticket <= -0.452\ngini = 0.193\nsamples = 361\nvalue = [322, 39]"] ;
7 -> 8 ;
9 [label="Fare <= -0.446\ngini = 0.307\nsamples = 58\nvalue = [47, 11]"] ;
8 -> 9 ;
10 [label="gini = 0.213\nsamples = 33\nvalue = [29, 4]"] ;
9 -> 10 ;
11 [label="gini = 0.403\nsamples = 25\nvalue = [18, 7]"] ;
9 -> 11 ;
12 [label="Ticket <= 0.135\ngini = 0.168\nsamples = 303\nvalue = [275, 28]"] ;
8 -> 12 ;
13 [label="Age <= 0.24\ngini = 0.147\nsamples = 276\nvalue = [254, 22]"] ;
12 -> 13 ;
14 [label="Fare <= -0.476\ngini = 0.186\nsamples = 193\nvalue = [173, 20]"] ;
13 -> 14 ;
15 [label="Ticket <= 0.067\ngini = 0.252\nsamples = 61\nvalue = [52, 9]"] ;
14 -> 15 ;
16 [label="gini = 0.128\nsamples = 29\nvalue = [27, 2]"] ;
15 -> 16 ;
17 [label="gini = 0.342\nsamples = 32\nvalue = [25, 7]"] ;
15 -> 17 ;
18 [label="Fare <= -0.187\ngini = 0.153\nsamples = 132\nvalue = [121, 11]"] ;
14 -> 18 ;
19 [label="Ticket <= 0.066\ngini = 0.124\nsamples = 105\nvalue = [98, 7]"] ;
18 -> 19 ;
20 [label="Ticket <= -0.4\ngini = 0.165\nsamples = 66\nvalue = [60, 6]"] ;
19 -> 20 ;
21 [label="gini = 0.067\nsamples = 29\nvalue = [28, 1]"] ;
20 -> 21 ;
22 [label="gini = 0.234\nsamples = 37\nvalue = [32, 5]"] ;
20 -> 22 ;
23 [label="gini = 0.05\nsamples = 39\nvalue = [38, 1]"] ;
19 -> 23 ;
24 [label="gini = 0.252\nsamples = 27\nvalue = [23, 4]"] ;
18 -> 24 ;
25 [label="Ticket <= -0.096\ngini = 0.047\nsamples = 83\nvalue = [81, 2]"] ;
13 -> 25 ;
26 [label="gini = 0.1\nsamples = 38\nvalue = [36, 2]"] ;
25 -> 26 ;
27 [label="gini = 0.0\nsamples = 45\nvalue = [45, 0]"] ;
25 -> 27 ;
28 [label="gini = 0.346\nsamples = 27\nvalue = [21, 6]"] ;
12 -> 28 ;
29 [label="gini = 0.483\nsamples = 27\nvalue = [16, 11]"] ;
7 -> 29 ;
30 [label="Pclass <= 0.206\ngini = 0.386\nsamples = 245\nvalue = [64, 181]"] ;
0 -> 30 [labeldistance=2.5, labelangle=-45, headlabel="False"] ;
31 [label="Age <= -0.145\ngini = 0.074\nsamples = 130\nvalue = [5, 125]"] ;
30 -> 31 ;
32 [label="Ticket <= -0.289\ngini = 0.15\nsamples = 49\nvalue = [4, 45]"] ;
31 -> 32 ;
33 [label="gini = 0.067\nsamples = 29\nvalue = [1, 28]"] ;
32 -> 33 ;
34 [label="gini = 0.255\nsamples = 20\nvalue = [3, 17]"] ;
32 -> 34 ;
35 [label="Age <= 1.394\ngini = 0.024\nsamples = 81\nvalue = [1, 80]"] ;
31 -> 35 ;
36 [label="gini = 0.0\nsamples = 61\nvalue = [0, 61]"] ;
35 -> 36 ;
37 [label="gini = 0.095\nsamples = 20\nvalue = [1, 19]"] ;
35 -> 37 ;
38 [label="Fare <= -0.178\ngini = 0.5\nsamples = 115\nvalue = [59, 56]"] ;
30 -> 38 ;
39 [label="Ticket <= 0.096\ngini = 0.486\nsamples = 94\nvalue = [39, 55]"] ;
38 -> 39 ;
40 [label="Embarked <= 0.248\ngini = 0.499\nsamples = 73\nvalue = [35, 38]"] ;
39 -> 40 ;
41 [label="Ticket <= 0.065\ngini = 0.476\nsamples = 41\nvalue = [25, 16]"] ;
40 -> 41 ;
42 [label="gini = 0.495\nsamples = 20\nvalue = [11, 9]"] ;
41 -> 42 ;
43 [label="gini = 0.444\nsamples = 21\nvalue = [14, 7]"] ;
41 -> 43 ;
44 [label="gini = 0.43\nsamples = 32\nvalue = [10, 22]"] ;
40 -> 44 ;
45 [label="gini = 0.308\nsamples = 21\nvalue = [4, 17]"] ;
39 -> 45 ;
46 [label="gini = 0.091\nsamples = 21\nvalue = [20, 1]"] ;
38 -> 46 ;
}