digraph Tree {
node [shape=box] ;
0 [label="Sex <= 0.328\ngini = 0.469\nsamples = 712\nvalue = [444, 268]"] ;
1 [label="Age <= -1.761\ngini = 0.303\nsamples = 467\nvalue = [380, 87]"] ;
0 -> 1 [labeldistance=2.5, labelangle=45, headlabel="True"] ;
2 [label="gini = 0.434\nsamples = 22\nvalue = [7, 15]"] ;
1 -> 2 ;
3 [label="Pclass <= -1.007\ngini = 0.271\nsamples = 445\nvalue = [373, 72]"] ;
1 -> 3 ;
4 [label="Ticket <= -0.43\ngini = 0.442\nsamples = 91\nvalue = [61, 30]"] ;
3 -> 4 ;
5 [label="gini = 0.494\nsamples = 27\nvalue = [12, 15]"] ;
4 -> 5 ;
6 [label="Ticket <= -0.409\ngini = 0.359\nsamples = 64\nvalue = [49, 15]"] ;
4 -> 6 ;
7 [label="gini = 0.444\nsamples = 24\nvalue = [16, 8]"] ;
6 -> 7 ;
8 [label="Fare <= -0.035\ngini = 0.289\nsamples = 40\nvalue = [33, 7]"] ;
6 -> 8 ;
9 [label="gini = 0.375\nsamples = 20\nvalue = [15, 5]"] ;
8 -> 9 ;
10 [label="gini = 0.18\nsamples = 20\nvalue = [18, 2]"] ;
8 -> 10 ;
11 [label="Ticket <= -0.453\ngini = 0.209\nsamples = 354\nvalue = [312, 42]"] ;
3 -> 11 ;
12 [label="gini = 0.455\nsamples = 20\nvalue = [13, 7]"] ;
11 -> 12 ;
13 [label="Ticket <= 0.117\ngini = 0.188\nsamples = 334\nvalue = [299, 35]"] ;
11 -> 13 ;
14 [label="Age <= 0.24\ngini = 0.165\nsamples = 298\nvalue = [271, 27]"] ;
13 -> 14 ;
15 [label="Embarked <= 0.248\ngini = 0.201\nsamples = 221\nvalue = [196, 25]"] ;
14 -> 15 ;
16 [label="Fare <= -0.476\ngini = 0.164\nsamples = 166\nvalue = [151, 15]"] ;
15 -> 16 ;
17 [label="gini = 0.295\nsamples = 39\nvalue = [32, 7]"] ;
16 -> 17 ;
18 [label="Ticket <= 0.066\ngini = 0.118\nsamples = 127\nvalue = [119, 8]"] ;
16 -> 18 ;
19 [label="Ticket <= -0.407\ngini = 0.156\nsamples = 94\nvalue = [86, 8]"] ;
18 -> 19 ;
20 [label="Ticket <= -0.44\ngini = 0.078\nsamples = 49\nvalue = [47, 2]"] ;
19 -> 20 ;
21 [label="gini = 0.133\nsamples = 28\nvalue = [26, 2]"] ;
20 -> 21 ;
22 [label="gini = 0.0\nsamples = 21\nvalue = [21, 0]"] ;
20 -> 22 ;
23 [label="Age <= -0.299\ngini = 0.231\nsamples = 45\nvalue = [39, 6]"] ;
19 -> 23 ;
24 [label="gini = 0.147\nsamples = 25\nvalue = [23, 2]"] ;
23 -> 24 ;
25 [label="gini = 0.32\nsamples = 20\nvalue = [16, 4]"] ;
23 -> 25 ;
26 [label="gini = 0.0\nsamples = 33\nvalue = [33, 0]"] ;
18 -> 26 ;
27 [label="Ticket <= -0.452\ngini = 0.298\nsamples = 55\nvalue = [45, 10]"] ;
15 -> 27 ;
28 [label="gini = 0.42\nsamples = 20\nvalue = [14, 6]"] ;
27 -> 28 ;
29 [label="gini = 0.202\nsamples = 35\nvalue = [31, 4]"] ;
27 -> 29 ;
30 [label="Pclass <= 0.206\ngini = 0.051\nsamples = 77\nvalue = [75, 2]"] ;
14 -> 30 ;
31 [label="gini = 0.121\nsamples = 31\nvalue = [29, 2]"] ;
30 -> 31 ;
32 [label="gini = 0.0\nsamples = 46\nvalue = [46, 0]"] ;
30 -> 32 ;
33 [label="gini = 0.346\nsamples = 36\nvalue = [28, 8]"] ;
13 -> 33 ;
34 [label="Pclass <= 0.206\ngini = 0.386\nsamples = 245\nvalue = [64, 181]"] ;
0 -> 34 [labeldistance=2.5, labelangle=-45, headlabel="False"] ;
35 [label="Age <= -0.145\ngini = 0.074\nsamples = 130\nvalue = [5, 125]"] ;
34 -> 35 ;
36 [label="Ticket <= -0.289\ngini = 0.15\nsamples = 49\nvalue = [4, 45]"] ;
35 -> 36 ;
37 [label="gini = 0.067\nsamples = 29\nvalue = [1, 28]"] ;
36 -> 37 ;
38 [label="gini = 0.255\nsamples = 20\nvalue = [3, 17]"] ;
36 -> 38 ;
39 [label="Age <= 1.394\ngini = 0.024\nsamples = 81\nvalue = [1, 80]"] ;
35 -> 39 ;
40 [label="gini = 0.0\nsamples = 61\nvalue = [0, 61]"] ;
39 -> 40 ;
41 [label="gini = 0.095\nsamples = 20\nvalue = [1, 19]"] ;
39 -> 41 ;
42 [label="Fare <= -0.178\ngini = 0.5\nsamples = 115\nvalue = [59, 56]"] ;
34 -> 42 ;
43 [label="Ticket <= 0.096\ngini = 0.486\nsamples = 94\nvalue = [39, 55]"] ;
42 -> 43 ;
44 [label="Embarked <= 0.248\ngini = 0.499\nsamples = 73\nvalue = [35, 38]"] ;
43 -> 44 ;
45 [label="Fare <= -0.438\ngini = 0.476\nsamples = 41\nvalue = [25, 16]"] ;
44 -> 45 ;
46 [label="gini = 0.444\nsamples = 21\nvalue = [14, 7]"] ;
45 -> 46 ;
47 [label="gini = 0.495\nsamples = 20\nvalue = [11, 9]"] ;
45 -> 47 ;
48 [label="gini = 0.43\nsamples = 32\nvalue = [10, 22]"] ;
44 -> 48 ;
49 [label="gini = 0.308\nsamples = 21\nvalue = [4, 17]"] ;
43 -> 49 ;
50 [label="gini = 0.091\nsamples = 21\nvalue = [20, 1]"] ;
42 -> 50 ;
}