digraph Tree {
node [shape=box] ;
0 [label="Title <= -0.222\ngini = 0.469\nsamples = 712\nvalue = [444, 268]"] ;
1 [label="Cabin <= -1.747\ngini = 0.262\nsamples = 419\nvalue = [354, 65]"] ;
0 -> 1 [labeldistance=2.5, labelangle=45, headlabel="True"] ;
2 [label="gini = 0.5\nsamples = 37\nvalue = [19, 18]"] ;
1 -> 2 ;
3 [label="Fare <= -0.063\ngini = 0.216\nsamples = 382\nvalue = [335, 47]"] ;
1 -> 3 ;
4 [label="Age <= -0.033\ngini = 0.191\nsamples = 328\nvalue = [293, 35]"] ;
3 -> 4 ;
5 [label="Age <= -0.224\ngini = 0.239\nsamples = 144\nvalue = [124, 20]"] ;
4 -> 5 ;
6 [label="Fare <= -0.491\ngini = 0.185\nsamples = 116\nvalue = [104, 12]"] ;
5 -> 6 ;
7 [label="gini = 0.284\nsamples = 35\nvalue = [29, 6]"] ;
6 -> 7 ;
8 [label="Age <= -0.668\ngini = 0.137\nsamples = 81\nvalue = [75, 6]"] ;
6 -> 8 ;
9 [label="gini = 0.251\nsamples = 34\nvalue = [29, 5]"] ;
8 -> 9 ;
10 [label="Fare <= -0.402\ngini = 0.042\nsamples = 47\nvalue = [46, 1]"] ;
8 -> 10 ;
11 [label="gini = 0.0\nsamples = 25\nvalue = [25, 0]"] ;
10 -> 11 ;
12 [label="gini = 0.087\nsamples = 22\nvalue = [21, 1]"] ;
10 -> 12 ;
13 [label="gini = 0.408\nsamples = 28\nvalue = [20, 8]"] ;
5 -> 13 ;
14 [label="Fare <= -0.503\ngini = 0.15\nsamples = 184\nvalue = [169, 15]"] ;
4 -> 14 ;
15 [label="gini = 0.0\nsamples = 24\nvalue = [24, 0]"] ;
14 -> 15 ;
16 [label="Fare <= -0.367\ngini = 0.17\nsamples = 160\nvalue = [145, 15]"] ;
14 -> 16 ;
17 [label="Fare <= -0.489\ngini = 0.196\nsamples = 118\nvalue = [105, 13]"] ;
16 -> 17 ;
18 [label="Fare <= -0.49\ngini = 0.124\nsamples = 60\nvalue = [56, 4]"] ;
17 -> 18 ;
19 [label="gini = 0.184\nsamples = 39\nvalue = [35, 4]"] ;
18 -> 19 ;
20 [label="gini = 0.0\nsamples = 21\nvalue = [21, 0]"] ;
18 -> 20 ;
21 [label="Age <= 0.29\ngini = 0.262\nsamples = 58\nvalue = [49, 9]"] ;
17 -> 21 ;
22 [label="gini = 0.198\nsamples = 27\nvalue = [24, 3]"] ;
21 -> 22 ;
23 [label="gini = 0.312\nsamples = 31\nvalue = [25, 6]"] ;
21 -> 23 ;
24 [label="Fare <= -0.144\ngini = 0.091\nsamples = 42\nvalue = [40, 2]"] ;
16 -> 24 ;
25 [label="gini = 0.0\nsamples = 20\nvalue = [20, 0]"] ;
24 -> 25 ;
26 [label="gini = 0.165\nsamples = 22\nvalue = [20, 2]"] ;
24 -> 26 ;
27 [label="IsAlone <= -0.21\ngini = 0.346\nsamples = 54\nvalue = [42, 12]"] ;
3 -> 27 ;
28 [label="gini = 0.18\nsamples = 30\nvalue = [27, 3]"] ;
27 -> 28 ;
29 [label="gini = 0.469\nsamples = 24\nvalue = [15, 9]"] ;
27 -> 29 ;
30 [label="TicketSurvivor <= 0.539\ngini = 0.426\nsamples = 293\nvalue = [90, 203]"] ;
0 -> 30 [labeldistance=2.5, labelangle=-45, headlabel="False"] ;
31 [label="FamillySize <= 1.339\ngini = 0.5\nsamples = 165\nvalue = [84, 81]"] ;
30 -> 31 ;
32 [label="Pclass <= 0.229\ngini = 0.475\nsamples = 129\nvalue = [50, 79]"] ;
31 -> 32 ;
33 [label="Age <= 0.849\ngini = 0.32\nsamples = 55\nvalue = [11, 44]"] ;
32 -> 33 ;
34 [label="gini = 0.121\nsamples = 31\nvalue = [2, 29]"] ;
33 -> 34 ;
35 [label="gini = 0.469\nsamples = 24\nvalue = [9, 15]"] ;
33 -> 35 ;
36 [label="Fare <= -0.487\ngini = 0.499\nsamples = 74\nvalue = [39, 35]"] ;
32 -> 36 ;
37 [label="gini = 0.444\nsamples = 36\nvalue = [12, 24]"] ;
36 -> 37 ;
38 [label="gini = 0.411\nsamples = 38\nvalue = [27, 11]"] ;
36 -> 38 ;
39 [label="gini = 0.105\nsamples = 36\nvalue = [34, 2]"] ;
31 -> 39 ;
40 [label="Sex <= 0.309\ngini = 0.089\nsamples = 128\nvalue = [6, 122]"] ;
30 -> 40 ;
41 [label="gini = 0.308\nsamples = 21\nvalue = [4, 17]"] ;
40 -> 41 ;
42 [label="Fare <= 2.071\ngini = 0.037\nsamples = 107\nvalue = [2, 105]"] ;
40 -> 42 ;
43 [label="gini = 0.0\nsamples = 87\nvalue = [0, 87]"] ;
42 -> 43 ;
44 [label="gini = 0.18\nsamples = 20\nvalue = [2, 18]"] ;
42 -> 44 ;
}